{
  "feature_columns": [
    "average_eligible_emi",
    "average_usable_salary",
    "average_monthly_credit",
    "employment_tenure_years",
    "average_month_end_balance",
    "bounce_count",
    "gambling_transaction_count",
    "active_loans_count",
    "has_credit_card",
    "has_personal_loan",
    "has_home_loan",
    "credit_exposure_intensity",
    "average_obligation_to_income_ratio",
    "credit_score",
    "income_stability",
    "employer_category"
  ],
  "numeric_columns": [
    "average_eligible_emi",
    "average_usable_salary",
    "average_monthly_credit",
    "employment_tenure_years",
    "average_month_end_balance",
    "bounce_count",
    "gambling_transaction_count",
    "active_loans_count",
    "has_credit_card",
    "has_personal_loan",
    "has_home_loan",
    "credit_exposure_intensity",
    "average_obligation_to_income_ratio",
    "credit_score"
  ],
  "categorical_columns": [
    "income_stability",
    "employer_category"
  ],
  "scaler": {
    "mean": [
      70105.82565142857,
      156964.862,
      311314.01864142856,
      5.122667142857143,
      336263.1141514286,
      0.22542857142857142,
      0.02942857142857143,
      2.444714285714286,
      0.48928571428571427,
      0.4907142857142857,
      0.48242857142857143,
      2.9332857142857143,
      52.451838571428574,
      670.36
    ],
    "scale": [
      40723.85039086794,
      83601.35354121683,
      196250.76063310337,
      5.084145983973019,
      340418.2953925618,
      0.6068976984027297,
      0.21971985874410765,
      1.7048085116002003,
      0.4998851909005032,
      0.49991376807425913,
      0.4996911495093335,
      1.766507629216934,
      24.52357032104183,
      71.06541332764182
    ]
  },
  "encoder_categories": {
    "income_stability": [
      "FLUCTUATING",
      "STABLE",
      "UNSTABLE"
    ],
    "employer_category": [
      "Category A (MNC/Govt/PSU)",
      "Category B (Private Ltd)",
      "Category C (Partnership/Proprietorship)",
      "Unlisted"
    ]
  },
  "feature_order": [
    "numeric__average_eligible_emi",
    "numeric__average_usable_salary",
    "numeric__average_monthly_credit",
    "numeric__employment_tenure_years",
    "numeric__average_month_end_balance",
    "numeric__bounce_count",
    "numeric__gambling_transaction_count",
    "numeric__active_loans_count",
    "numeric__has_credit_card",
    "numeric__has_personal_loan",
    "numeric__has_home_loan",
    "numeric__credit_exposure_intensity",
    "numeric__average_obligation_to_income_ratio",
    "numeric__credit_score",
    "categorical__income_stability_FLUCTUATING",
    "categorical__income_stability_STABLE",
    "categorical__income_stability_UNSTABLE",
    "categorical__employer_category_Category A (MNC/Govt/PSU)",
    "categorical__employer_category_Category B (Private Ltd)",
    "categorical__employer_category_Category C (Partnership/Proprietorship)",
    "categorical__employer_category_Unlisted"
  ],
  "mlp": {
    "input_dim": 21,
    "layers": [
      {
        "weights": [
          [
            0.22006244957447052,
            -0.005851294379681349,
            0.036118365824222565,
            0.06692998111248016,
            -0.056243304163217545,
            0.012745645828545094,
            0.04384774714708328,
            -0.11746467649936676,
            -0.06257939338684082,
            0.10482879728078842,
            -0.037770334631204605,
            0.09439779818058014,
            0.0024836589582264423,
            -0.10365394502878189,
            0.10751362144947052,
            0.01213813666254282,
            -0.11814893037080765,
            -0.09798362106084824,
            -0.057145703583955765,
            -0.11270712316036224,
            -0.0009066056809388101,
            0.18778567016124725,
            0.09820669144392014,
            -0.22025197744369507,
            0.1467677354812622,
            0.05415431410074234,
            0.12389005720615387,
            -0.025941984727978706,
            -0.10734438896179199,
            0.06268114596605301,
            -0.2122853398323059,
            0.09950172901153564,
            -0.03226691856980324,
            -0.03530469536781311,
            0.04174851253628731,
            -0.02445969730615616,
            0.010487602092325687,
            0.014278328977525234,
            0.03030356764793396,
            0.07647502422332764,
            -0.21247075498104095,
            -0.03983870521187782,
            0.07885781675577164,
            0.04076535999774933,
            -0.14602689445018768,
            0.0549238845705986,
            0.1786295771598816,
            -0.007603621110320091,
            0.009660651907324791,
            0.058458734303712845,
            -0.0911187008023262,
            0.08596369624137878,
            -0.12517818808555603,
            0.08979061990976334,
            0.002101535676047206,
            0.09495319426059723,
            0.06165216490626335,
            -0.025706443935632706,
            -0.0008606521878391504,
            -0.25049901008605957,
            -0.004558433312922716,
            0.10902390629053116,
            -0.07673273235559464,
            -0.0018179682083427906
          ],
          [
            -0.0819033682346344,
            0.13307568430900574,
            -0.08866529911756516,
            -0.06233940273523331,
            0.07365935295820236,
            -0.03742231801152229,
            0.061292149126529694,
            0.24307741224765778,
            0.17594559490680695,
            -0.11027171462774277,
            -0.02482619322836399,
            -0.1666392982006073,
            0.020709071308374405,
            0.14573928713798523,
            0.04703511297702789,
            -0.04051022231578827,
            -0.1052260771393776,
            0.21405187249183655,
            -0.10570842772722244,
            -0.14177049696445465,
            -0.04339948669075966,
            -0.18107210099697113,
            0.05686343088746071,
            0.033134784549474716,
            -0.08748795837163925,
            0.038203783333301544,
            -0.07316594570875168,
            0.05588602274656296,
            -0.08360881358385086,
            -0.05853775516152382,
            0.08139432966709137,
            -0.08783119171857834,
            0.11433316022157669,
            0.17326948046684265,
            0.09804854542016983,
            0.03074638918042183,
            -0.010078398510813713,
            0.0953419879078865,
            -0.06215719133615494,
            -0.09727177023887634,
            -0.030944064259529114,
            0.1521570086479187,
            -0.03612181171774864,
            -0.05792456492781639,
            0.11967813223600388,
            -0.05304143577814102,
            -0.056504026055336,
            0.043449364602565765,
            -0.0338800847530365,
            0.18047292530536652,
            0.06296930462121964,
            -0.01764809526503086,
            0.16019307076931,
            -0.1922931969165802,
            0.01820789836347103,
            -0.01709231548011303,
            0.06356113404035568,
            -0.04024314507842064,
            0.0021400097757577896,
            0.28404471278190613,
            -0.00018868601182475686,
            -0.08047343790531158,
            0.09626320749521255,
            -0.20821169018745422
          ],
          [
            -0.013305313885211945,
            -0.09307610243558884,
            0.10615996271371841,
            -0.09618726372718811,
            -0.02536197379231453,
            0.026227600872516632,
            -0.09797147661447525,
            -0.16601227223873138,
            -0.13039565086364746,
            -0.026633011177182198,
            0.09107654541730881,
            0.016474224627017975,
            -0.04615209251642227,
            -0.018974779173731804,
            -0.14936919510364532,
            0.032688356935977936,
            0.06489130109548569,
            -0.1408539116382599,
            0.12334165722131729,
            0.2653036415576935,
            0.03746645152568817,
            -0.05686330422759056,
            -0.12301469594240189,
            0.17826491594314575,
            -0.24435578286647797,
            -0.1214003637433052,
            -0.1917949616909027,
            -0.013737991452217102,
            0.070221908390522,
            0.029206862673163414,
            0.11998847126960754,
            -0.035573408007621765,
            0.015702832490205765,
            -0.042986225336790085,
            -0.11633037775754929,
            0.005219310987740755,
            0.044149886816740036,
            -0.05598853528499603,
            0.006110974587500095,
            0.030333051458001137,
            0.23552057147026062,
            -0.03286464512348175,
            -0.03125252202153206,
            -0.007441280409693718,
            0.06524904072284698,
            0.03247210383415222,
            -0.06405375897884369,
            -0.05099385976791382,
            0.030105410143733025,
            -0.24434354901313782,
            0.04870861768722534,
            -0.017713982611894608,
            -0.00408545508980751,
            0.21829809248447418,
            -7.382701005553827e-05,
            -0.10752611607313156,
            0.007541753817349672,
            0.06047624722123146,
            -0.0646294355392456,
            -0.015657061710953712,
            -0.004572382662445307,
            -0.014438387006521225,
            -0.06974135339260101,
            -0.1438390016555786
          ],
          [
            0.15298967063426971,
            -0.015433160588145256,
            -0.00427180016413331,
            0.09200082719326019,
            0.06304597109556198,
            0.04508046433329582,
            0.02586732618510723,
            0.012215848080813885,
            0.03223968669772148,
            0.029858654364943504,
            -0.026583857834339142,
            0.01775304041802883,
            0.046977367252111435,
            0.06808441877365112,
            -0.08037087321281433,
            -0.017473343759775162,
            0.05077950283885002,
            0.0676419660449028,
            0.03809850662946701,
            -0.03242609277367592,
            -1.0863707065582275,
            0.023900941014289856,
            0.08106374740600586,
            0.03923429176211357,
            0.09483784437179565,
            -0.07895325869321823,
            0.006426391191780567,
            0.023420581594109535,
            0.015103408135473728,
            0.10529084503650665,
            -0.0192283745855093,
            0.04093456268310547,
            -0.5616986155509949,
            0.021403349936008453,
            0.04427511245012283,
            -0.00034910812973976135,
            0.09654150903224945,
            -0.0016997659113258123,
            0.06256169825792313,
            0.03641921654343605,
            0.024890242144465446,
            -0.3932287096977234,
            0.10387477278709412,
            -0.012749208137392998,
            -0.21082158386707306,
            -0.044058140367269516,
            -0.04748084023594856,
            0.018342014402151108,
            0.025878116488456726,
            0.06628967076539993,
            0.12951703369617462,
            0.0002467315352987498,
            -0.12671470642089844,
            0.21021898090839386,
            -0.007469026371836662,
            0.025281839072704315,
            0.054251380264759064,
            -0.012315396219491959,
            -0.03315262869000435,
            0.050748009234666824,
            -0.9297729730606079,
            -0.18128560483455658,
            0.07471156865358353,
            0.11511627584695816
          ],
          [
            -0.08120954036712646,
            -0.12432131171226501,
            -0.09315010160207748,
            0.16793814301490784,
            -0.05267950892448425,
            0.023675357922911644,
            0.16653119027614594,
            -0.02107515186071396,
            -0.16784918308258057,
            0.10370536148548126,
            -0.022608360275626183,
            -0.01673225872218609,
            -0.02342228777706623,
            0.001676212646998465,
            -0.05954689905047417,
            0.006867679301649332,
            0.0034731219056993723,
            -0.00865114200860262,
            -0.06657111644744873,
            0.028068112209439278,
            0.037359897047281265,
            0.09185855090618134,
            0.15773756802082062,
            0.0019772702362388372,
            -0.056570541113615036,
            -0.06285633891820908,
            0.11081715673208237,
            0.02733115665614605,
            0.1058555468916893,
            0.20054925978183746,
            0.06679721176624298,
            0.028322692960500717,
            -0.09278945624828339,
            -0.002334353979676962,
            -0.016181668266654015,
            -0.02022816799581051,
            0.09299562871456146,
            -0.0005415428895503283,
            0.0371522530913353,
            -0.384558767080307,
            0.058388251811265945,
            -0.06691943854093552,
            -0.12024598568677902,
            0.044678475707769394,
            -0.10612525790929794,
            0.003409160766750574,
            0.027261478826403618,
            -0.005824561230838299,
            -0.6009345650672913,
            0.0031211660243570805,
            -0.019185852259397507,
            0.035618990659713745,
            0.0040147565305233,
            0.01098431833088398,
            0.015877429395914078,
            0.0328189879655838,
            0.01639099232852459,
            0.03631802648305893,
            0.013316970318555832,
            0.10367819666862488,
            0.01802651770412922,
            -0.04886521026492119,
            0.08369769901037216,
            -0.1466495394706726
          ],
          [
            0.1540648341178894,
            0.1729964017868042,
            0.11640345305204391,
            0.11804725974798203,
            0.04364890977740288,
            0.02987087517976761,
            -0.6250098347663879,
            0.38857924938201904,
            0.041581351310014725,
            -0.435466468334198,
            0.18874609470367432,
            0.0037486290093511343,
            0.019092155620455742,
            -0.46237266063690186,
            0.07321734726428986,
            0.013812209479510784,
            -0.7041282057762146,
            -0.2311813235282898,
            -0.6397693753242493,
            0.17169536650180817,
            -0.01759226806461811,
            -0.4868742525577545,
            0.059486523270606995,
            -0.03491191193461418,
            -0.4624795913696289,
            -0.47183722257614136,
            0.051347024738788605,
            0.1378663182258606,
            -0.7106519341468811,
            -0.3997384011745453,
            0.16970619559288025,
            -0.46834245324134827,
            0.13016238808631897,
            0.061355456709861755,
            0.08671419322490692,
            0.007511422969400883,
            -0.5168501138687134,
            -0.2526734173297882,
            -0.5631337761878967,
            0.04856366291642189,
            -0.6825898289680481,
            0.07358598709106445,
            -0.10451557487249374,
            -0.39791595935821533,
            -0.3214302361011505,
            0.033694785088300705,
            -0.3074885904788971,
            0.20017963647842407,
            0.13426829874515533,
            -0.12720128893852234,
            -0.004779966548085213,
            0.018223533406853676,
            0.33594873547554016,
            0.1532159447669983,
            0.021934418007731438,
            0.003962592221796513,
            -0.5742754936218262,
            -0.6098831295967102,
            -0.46155452728271484,
            0.11225694417953491,
            -0.012708636932075024,
            0.24039654433727264,
            -0.4326855540275574,
            0.13354037702083588
          ],
          [
            -0.028499703854322433,
            0.03133750706911087,
            0.0017796459142118692,
            0.10983015596866608,
            0.09343915432691574,
            0.07424245774745941,
            -0.27353113889694214,
            -0.009954256936907768,
            0.13019251823425293,
            -0.1741349697113037,
            0.11569281667470932,
            0.07806684821844101,
            0.04937053099274635,
            -0.117670938372612,
            0.016812235116958618,
            0.022942200303077698,
            0.016704492270946503,
            -0.010148118250072002,
            -0.09610646963119507,
            -0.14092852175235748,
            -0.00074288115138188,
            -0.21976660192012787,
            -0.06835299730300903,
            -0.20878680050373077,
            -0.18760313093662262,
            0.07197137922048569,
            0.06086331605911255,
            0.1076202467083931,
            -0.2591739296913147,
            -0.1664912849664688,
            0.09859950840473175,
            -0.16824471950531006,
            0.13566076755523682,
            -0.005976415239274502,
            0.18413145840168,
            -0.12104728817939758,
            -0.07032513618469238,
            0.02733417972922325,
            -0.14540508389472961,
            0.04509817063808441,
            -0.23349682986736298,
            0.06262362003326416,
            0.08434230089187622,
            -0.1488649547100067,
            -0.0951232761144638,
            0.08683928102254868,
            -0.11179009824991226,
            -0.1124245747923851,
            0.05600191280245781,
            -0.20274882018566132,
            0.0024276799522340298,
            0.05658349767327309,
            0.2154512107372284,
            0.05979623645544052,
            0.022021682932972908,
            -0.03223798796534538,
            0.020019177347421646,
            -0.20896007120609283,
            -0.015612048096954823,
            -0.21595004200935364,
            0.009479544125497341,
            0.251433789730072,
            -0.11097824573516846,
            0.05894465744495392
          ],
          [
            0.3448992669582367,
            -0.11967580020427704,
            0.25087589025497437,
            0.0946425199508667,
            0.4089467227458954,
            0.2934280037879944,
            -0.24789899587631226,
            -0.08156145364046097,
            -0.24884411692619324,
            -0.047489214688539505,
            0.11101105809211731,
            0.40141844749450684,
            0.3212162256240845,
            -0.2842005789279938,
            -0.2078671008348465,
            -0.0961904525756836,
            -0.14681220054626465,
            -0.019174139946699142,
            0.058352336287498474,
            0.07153898477554321,
            -0.03296922892332077,
            -0.19956283271312714,
            0.3105880618095398,
            0.05445927754044533,
            0.15760256350040436,
            -0.1550477147102356,
            -0.17452502250671387,
            0.053246594965457916,
            0.11208969354629517,
            -0.16305159032344818,
            0.1364881694316864,
            -0.02635364793241024,
            -0.28373047709465027,
            0.5407589673995972,
            -0.2503996193408966,
            1.4633944374509156e-05,
            0.08469413965940475,
            0.17220984399318695,
            0.06233658641576767,
            -0.0197280403226614,
            -0.22646641731262207,
            0.1349659562110901,
            0.07422271370887756,
            -0.1195250004529953,
            0.18283087015151978,
            0.3438894748687744,
            0.1535666435956955,
            -0.017084799706935883,
            0.07175660133361816,
            -0.08424293994903564,
            0.11311498284339905,
            0.3680233955383301,
            -0.1678498387336731,
            0.11524714529514313,
            -0.03508065640926361,
            0.031741853803396225,
            -0.13783922791481018,
            0.0994265228509903,
            0.16761240363121033,
            -0.22273285686969757,
            0.0664374828338623,
            0.2770642042160034,
            -0.1894509345293045,
            0.061987411230802536
          ],
          [
            -0.009518811479210854,
            -0.005850406363606453,
            0.0019291091011837125,
            -0.015503465197980404,
            -0.0020105899311602116,
            -0.008268598467111588,
            0.026780346408486366,
            -0.057204242795705795,
            0.0457586869597435,
            0.12251681089401245,
            0.03873114660382271,
            0.048265308141708374,
            0.021659640595316887,
            0.13005056977272034,
            -0.07313872873783112,
            -0.018174000084400177,
            -0.009327786974608898,
            -0.21473701298236847,
            0.037310902029275894,
            0.10121773928403854,
            0.00038765292265452445,
            -0.003648541634902358,
            -0.024907438084483147,
            -0.15630172193050385,
            -0.07251207530498505,
            0.00697255227714777,
            0.029514838010072708,
            -0.0594324991106987,
            0.09960385411977768,
            0.0944155901670456,
            0.018050892278552055,
            -0.14504022896289825,
            0.07264859974384308,
            -0.0720524713397026,
            0.02145782671868801,
            0.005564684513956308,
            0.00948257464915514,
            0.033876933157444,
            -0.0772985965013504,
            -0.021785954013466835,
            -0.008442020043730736,
            -0.012155268341302872,
            -0.371623694896698,
            0.09051317721605301,
            0.2610023319721222,
            -0.012267328798770905,
            0.0558001734316349,
            0.1272924691438675,
            0.0355023518204689,
            -0.10789409279823303,
            -0.15589100122451782,
            -0.00971459224820137,
            0.06690967828035355,
            -0.1313568502664566,
            0.004017651546746492,
            -0.13441874086856842,
            -0.1203840970993042,
            -0.0720653310418129,
            -0.23830579221248627,
            0.10794087499380112,
            -0.024999363347887993,
            0.00353143154643476,
            0.18627867102622986,
            -0.0864587053656578
          ],
          [
            -0.04414781183004379,
            0.064785435795784,
            0.0036299603525549173,
            -0.03589237481355667,
            0.006200194358825684,
            -0.020827550441026688,
            -0.02494666911661625,
            0.09684884548187256,
            0.12860633432865143,
            0.05429093539714813,
            -0.30773892998695374,
            0.051365677267313004,
            -0.009398209862411022,
            0.11400225013494492,
            0.026512205600738525,
            -0.0210634246468544,
            -0.04097547382116318,
            -0.0330546498298645,
            -0.04676865413784981,
            0.10031309723854065,
            0.0046319602988660336,
            0.18149428069591522,
            0.049987610429525375,
            0.10731206089258194,
            -0.16331914067268372,
            0.15031427145004272,
            0.03400655835866928,
            -0.01563900150358677,
            -0.22120758891105652,
            0.19486448168754578,
            -0.11286643147468567,
            -0.044062770903110504,
            -0.005164263304322958,
            -0.0018681520596146584,
            0.0037325872108340263,
            -0.004919280298054218,
            -0.03810160607099533,
            0.210748553276062,
            0.033868853002786636,
            -0.0035046585835516453,
            0.029549309983849525,
            0.0022442468907684088,
            0.09032158553600311,
            0.018785718828439713,
            0.1169351190328598,
            -0.009304454550147057,
            0.04320390522480011,
            -0.10498365014791489,
            0.00970616564154625,
            0.013402477838099003,
            0.27112412452697754,
            0.042835742235183716,
            -0.04011397808790207,
            -0.09439677745103836,
            -0.0008728376124054193,
            -0.32063984870910645,
            0.20247413218021393,
            -0.027021830901503563,
            -0.23823297023773193,
            -0.012461474165320396,
            -0.03032149001955986,
            -0.018474208191037178,
            0.1922997385263443,
            0.07576186954975128
          ],
          [
            0.04132280871272087,
            0.133437380194664,
            0.035803910344839096,
            -0.03096235916018486,
            0.02259126864373684,
            -0.02341504581272602,
            0.14245566725730896,
            -0.04968598484992981,
            -0.046180956065654755,
            0.012957735918462276,
            -0.026382852345705032,
            -0.02208607830107212,
            -0.02384776622056961,
            0.14586412906646729,
            0.08547719568014145,
            -0.01231720857322216,
            0.029686305671930313,
            -0.06634176522493362,
            -0.03996872901916504,
            -0.1669279932975769,
            -0.01976078748703003,
            0.05694560706615448,
            0.03779307007789612,
            0.0897749811410904,
            -0.1775854378938675,
            0.030791888013482094,
            -0.04577067866921425,
            -0.052884213626384735,
            0.062032438814640045,
            0.05734802037477493,
            -0.15047189593315125,
            -0.14357025921344757,
            0.060874536633491516,
            -0.1406634896993637,
            -0.04469550400972366,
            0.015856457874178886,
            -0.050430163741111755,
            -0.07219861447811127,
            -0.06414130330085754,
            0.00882076658308506,
            0.1735610067844391,
            0.04035837575793266,
            0.01002043392509222,
            -0.06535816192626953,
            -0.2355324774980545,
            -0.042903363704681396,
            -0.012029492296278477,
            -0.1443517804145813,
            0.006990011781454086,
            0.3159215450286865,
            -0.13732808828353882,
            -0.05701488256454468,
            0.017261222004890442,
            0.026080209761857986,
            -0.01321693416684866,
            -0.001680392655543983,
            0.01298223901540041,
            -0.010295473039150238,
            -0.18988651037216187,
            0.07730497419834137,
            -0.03479669243097305,
            0.03590090200304985,
            0.10015637427568436,
            -0.04317665100097656
          ],
          [
            0.1287188082933426,
            -0.05551394820213318,
            0.7838939428329468,
            0.3967806398868561,
            0.7541617155075073,
            0.9193716645240784,
            0.027337532490491867,
            0.09919973462820053,
            -0.21705050766468048,
            -0.17394903302192688,
            0.08487338572740555,
            0.5590574145317078,
            0.827696681022644,
            -0.01375496108084917,
            0.039528630673885345,
            0.08769787847995758,
            0.2838802635669708,
            0.04697207361459732,
            -0.1546243131160736,
            -0.27443692088127136,
            0.06219152733683586,
            0.035782285034656525,
            -0.2615559697151184,
            -0.09239784628152847,
            0.146283820271492,
            -0.08963211625814438,
            0.11925375461578369,
            0.007380030583590269,
            -0.15425778925418854,
            -0.19351819157600403,
            0.057867780327796936,
            0.12469098716974258,
            -0.1965733915567398,
            0.20012514293193817,
            0.09291654825210571,
            0.016474397853016853,
            -0.06618788093328476,
            -0.31070879101753235,
            0.003869070904329419,
            0.03711824119091034,
            0.012768200598657131,
            -0.15653449296951294,
            0.15813569724559784,
            0.0169746745377779,
            -0.2971092164516449,
            0.7575147747993469,
            0.5735766291618347,
            -0.12516248226165771,
            -0.04903241619467735,
            -0.02778906561434269,
            0.09284748882055283,
            0.7785468697547913,
            -0.23891347646713257,
            -0.15753589570522308,
            0.028854699805378914,
            0.1147584617137909,
            -0.15779368579387665,
            -0.027837729081511497,
            0.1384759396314621,
            -0.0016277723480015993,
            -0.005752118770033121,
            0.28473249077796936,
            -0.23830300569534302,
            -0.32205408811569214
          ],
          [
            -0.01317897904664278,
            0.2318636029958725,
            0.09376539289951324,
            0.35985296964645386,
            0.05576609447598457,
            0.019015025347471237,
            0.09263736009597778,
            0.12993666529655457,
            0.027097344398498535,
            0.3838699162006378,
            -0.7405804991722107,
            0.09433656185865402,
            0.007222556509077549,
            0.3500436246395111,
            -0.632948100566864,
            0.0013326307525858283,
            -0.580923855304718,
            0.5379880666732788,
            -0.7019753456115723,
            -0.40106505155563354,
            -0.012954010628163815,
            0.2891271114349365,
            0.06004764884710312,
            -0.37072890996932983,
            -0.3101726770401001,
            -0.5250574946403503,
            -0.601810872554779,
            0.18700386583805084,
            0.09961003065109253,
            -0.02177760750055313,
            -0.706899881362915,
            0.4698887765407562,
            0.019139479845762253,
            0.03170635178685188,
            0.1039208471775055,
            -0.02486395090818405,
            -0.5215986371040344,
            -0.06806263327598572,
            -0.3235643804073334,
            0.00897569302469492,
            0.15222740173339844,
            0.03249448910355568,
            -0.21274007856845856,
            0.4754340350627899,
            -0.440017431974411,
            0.04682987183332443,
            0.0071373083628714085,
            -0.36169013381004333,
            -0.004069548565894365,
            -0.21429207921028137,
            0.01800578460097313,
            -0.0014963033609092236,
            0.02303445339202881,
            0.08326022326946259,
            -0.0023731044493615627,
            -0.8178186416625977,
            -0.4396258592605591,
            0.10899931192398071,
            0.3869973421096802,
            0.17690542340278625,
            -0.03474544733762741,
            0.22110754251480103,
            -0.4010081887245178,
            -0.005292740650475025
          ],
          [
            -0.3758271634578705,
            -0.6305907964706421,
            0.14085330069065094,
            0.317122220993042,
            -0.03370681405067444,
            -0.02464277483522892,
            0.11799093335866928,
            0.45465245842933655,
            -0.5760436654090881,
            0.08184340596199036,
            0.3022662401199341,
            -0.014984851703047752,
            -0.0956597626209259,
            0.48411792516708374,
            0.3287396728992462,
            -1.1826951503753662,
            -0.2513382136821747,
            0.14645566046237946,
            0.17572085559368134,
            0.5581004619598389,
            -0.02818014845252037,
            0.4492926299571991,
            -0.49067190289497375,
            0.37609800696372986,
            0.3188067674636841,
            0.3214750289916992,
            0.16227498650550842,
            -0.77647465467453,
            0.43836429715156555,
            -0.024313297122716904,
            0.09508035331964493,
            0.4609689712524414,
            -0.3329941928386688,
            -0.42528608441352844,
            -0.8719423413276672,
            -1.2480014562606812,
            0.41144853830337524,
            0.5227732062339783,
            0.502238929271698,
            -0.9288319945335388,
            0.6290029883384705,
            -0.6265105605125427,
            0.27327343821525574,
            0.10806212574243546,
            0.30323222279548645,
            0.037578992545604706,
            0.2259850800037384,
            0.45767515897750854,
            -0.4835212826728821,
            0.3878833055496216,
            -0.3887312412261963,
            -0.029522810131311417,
            -0.2806225121021271,
            -0.3277522027492523,
            -1.1739517450332642,
            0.10939650237560272,
            0.3232821226119995,
            0.5934456586837769,
            0.5153234601020813,
            0.6182466149330139,
            -0.015890831127762794,
            0.44792911410331726,
            0.279291570186615,
            -0.038337189704179764
          ],
          [
            0.24143671989440918,
            -0.03109758161008358,
            -0.2872382700443268,
            -0.03690861165523529,
            -0.3131857216358185,
            -0.2651050090789795,
            -0.28537505865097046,
            -0.24269486963748932,
            -0.19493021070957184,
            -0.2794736921787262,
            -0.7721584439277649,
            -0.1801743358373642,
            -0.19466938078403473,
            -0.03415212035179138,
            -0.5597349405288696,
            -0.027828682214021683,
            0.009359925985336304,
            -0.4496914744377136,
            0.17072784900665283,
            -0.1736266165971756,
            -0.16536691784858704,
            -0.3313189744949341,
            -0.10031908005475998,
            0.1974477767944336,
            0.018334636464715004,
            -0.15511454641819,
            -0.5360584855079651,
            -0.049557238817214966,
            -0.06401780247688293,
            -0.22698292136192322,
            -0.6701334714889526,
            0.049441032111644745,
            -0.20796358585357666,
            -0.12108471244573593,
            -0.016193566843867302,
            -0.11844921112060547,
            0.037200603634119034,
            -0.2571605443954468,
            0.24606522917747498,
            -0.1776413768529892,
            -0.05835847929120064,
            -0.062402624636888504,
            -0.3366257846355438,
            -0.05896364524960518,
            0.12220653146505356,
            -0.171242818236351,
            -0.29676342010498047,
            -0.43261951208114624,
            -0.14738726615905762,
            0.0836518257856369,
            -0.16158345341682434,
            -0.29405754804611206,
            -0.07860152423381805,
            0.026388632133603096,
            -0.05506053939461708,
            -0.43485039472579956,
            0.13527534902095795,
            0.11594578623771667,
            0.0045265923254191875,
            -0.1711576133966446,
            -0.15823973715305328,
            0.09682988375425339,
            -0.06509444862604141,
            0.21502143144607544
          ],
          [
            -0.23365792632102966,
            -0.029914293438196182,
            -0.36702388525009155,
            -0.2152991145849228,
            -0.2896614372730255,
            -0.4753885865211487,
            0.1439436972141266,
            0.0014346976531669497,
            -0.4056735336780548,
            0.24850396811962128,
            -0.12538978457450867,
            -0.13733147084712982,
            -0.09661030024290085,
            -0.09264864772558212,
            0.10508682578802109,
            -0.0703808143734932,
            -0.04591153562068939,
            0.0003974265418946743,
            -0.330322802066803,
            0.038782596588134766,
            -0.2008044272661209,
            -0.018918581306934357,
            -0.31661680340766907,
            0.16735297441482544,
            0.15327969193458557,
            -0.24859590828418732,
            -0.012182272039353848,
            -0.21282602846622467,
            0.16829554736614227,
            0.3468438386917114,
            -0.18551309406757355,
            -0.025202862918376923,
            -0.4611491858959198,
            -0.3857305943965912,
            -0.06691537797451019,
            -0.07721763104200363,
            0.26558440923690796,
            0.11973948776721954,
            0.1466514766216278,
            -0.22551319003105164,
            -0.004590125288814306,
            -0.11644843965768814,
            0.029229143634438515,
            0.20470215380191803,
            -0.17900390923023224,
            -0.3294481039047241,
            -0.12477167695760727,
            0.06878553330898285,
            -0.23942671716213226,
            0.08084912598133087,
            -0.16932031512260437,
            -0.35609349608421326,
            -0.06559573113918304,
            -0.5111234188079834,
            -0.0760330855846405,
            0.00205997540615499,
            0.10349263995885849,
            -0.10362350195646286,
            0.20523560047149658,
            -0.058943234384059906,
            -0.14837180078029633,
            -0.2199961096048355,
            0.10473394393920898,
            -0.2764500081539154
          ],
          [
            0.30047357082366943,
            0.564272403717041,
            -0.12473902106285095,
            0.5967668890953064,
            -0.10030540823936462,
            -0.24703967571258545,
            -0.7411351203918457,
            -0.3037896454334259,
            0.08267281204462051,
            -0.43805623054504395,
            0.08843327313661575,
            -0.025402238592505455,
            -0.2339746505022049,
            -0.14438562095165253,
            0.38525766134262085,
            0.05361710116267204,
            -0.3517746329307556,
            -0.5320821404457092,
            -0.12109587341547012,
            -0.49918344616889954,
            -0.11073589324951172,
            -0.30395302176475525,
            0.2714517414569855,
            -0.24167588353157043,
            -0.30812790989875793,
            -0.07899332046508789,
            -0.5835464596748352,
            0.48087114095687866,
            -0.2004634290933609,
            -0.2783169150352478,
            0.18715693056583405,
            -0.2854648530483246,
            0.0022222306579351425,
            0.012578077614307404,
            0.4659143388271332,
            -0.056648749858140945,
            -0.15682964026927948,
            0.19315902888774872,
            -0.09795821458101273,
            -0.22342516481876373,
            -0.016809040680527687,
            0.17900991439819336,
            0.046447377651929855,
            -0.5075078010559082,
            -0.13940533995628357,
            -0.08931714296340942,
            -0.2940164804458618,
            -0.4244862198829651,
            -0.1072034165263176,
            -0.1910427063703537,
            0.20010913908481598,
            -0.2910859286785126,
            -0.05142953246831894,
            0.1916714608669281,
            0.009377449750900269,
            -0.35848376154899597,
            0.04907330870628357,
            0.06920884549617767,
            -0.4208875298500061,
            0.1608993113040924,
            -0.1086336076259613,
            -0.47628146409988403,
            -0.2035132646560669,
            -0.13154879212379456
          ],
          [
            -0.21342304348945618,
            -0.3963119089603424,
            -0.029596906155347824,
            -0.27202537655830383,
            -0.13221187889575958,
            -0.1200106218457222,
            0.03184271976351738,
            0.0053900727070868015,
            -0.07785825431346893,
            -0.18336765468120575,
            -0.2722109258174896,
            -0.06528999656438828,
            -0.17566919326782227,
            -0.10510984808206558,
            -0.25276556611061096,
            -0.00711259339004755,
            -0.22013093531131744,
            -0.22347021102905273,
            -0.12049109488725662,
            0.07063249498605728,
            -0.1546810418367386,
            -0.09018045663833618,
            -0.1804642379283905,
            0.08279664069414139,
            -0.04098539426922798,
            -0.07909071445465088,
            -0.26688915491104126,
            -0.18676383793354034,
            0.11623581498861313,
            -0.18843141198158264,
            -0.2903343737125397,
            -0.033023253083229065,
            -0.18213871121406555,
            -0.2653945982456207,
            -0.21165530383586884,
            -0.10787823051214218,
            -0.26317426562309265,
            0.006821207702159882,
            -0.10488681495189667,
            -0.09355594962835312,
            -0.00366763467900455,
            -0.17216742038726807,
            -0.053415697067976,
            -0.25498104095458984,
            -0.11544756591320038,
            -0.1985466331243515,
            -0.24702513217926025,
            0.06848249584436417,
            -0.11900303512811661,
            0.06562597304582596,
            0.024335253983736038,
            -0.16136132180690765,
            -0.030846863985061646,
            -0.05735945701599121,
            -0.023069823160767555,
            -0.22125662863254547,
            -0.07930362969636917,
            0.21831457316875458,
            -0.13000252842903137,
            0.19374097883701324,
            -0.22025826573371887,
            -0.16166634857654572,
            -0.18261845409870148,
            -0.24241548776626587
          ],
          [
            -0.07447019219398499,
            -0.14190642535686493,
            -0.11193227767944336,
            -0.15553615987300873,
            -0.06651980429887772,
            -0.08364719897508621,
            0.028721140697598457,
            0.07800453156232834,
            -0.08173755556344986,
            -0.1678268313407898,
            -0.23254218697547913,
            -0.08569120615720749,
            -0.2511003911495209,
            -0.01822301559150219,
            -0.2941298186779022,
            -0.09140235185623169,
            -0.19672343134880066,
            -0.12218079715967178,
            -0.13165183365345,
            0.05607358738780022,
            -0.10250984877347946,
            -0.05761869624257088,
            -0.15802918374538422,
            0.21795369684696198,
            0.12720365822315216,
            0.05489025264978409,
            -0.11052703857421875,
            -0.058256473392248154,
            0.08483974635601044,
            -0.07228284329175949,
            0.006350623443722725,
            -0.036384616047143936,
            -0.21189405024051666,
            -0.05312828719615936,
            -0.17204301059246063,
            -0.08465984463691711,
            -0.20794321596622467,
            -0.05419916659593582,
            -0.012492883019149303,
            -0.07309018820524216,
            0.028881503269076347,
            -0.19173184037208557,
            -0.12706305086612701,
            -0.11279265582561493,
            -0.17886680364608765,
            -0.1964499056339264,
            -0.43701452016830444,
            -0.2070803940296173,
            -0.12239532172679901,
            0.12199264019727707,
            0.10221226513385773,
            -0.1975124627351761,
            0.04907317832112312,
            -0.04641394317150116,
            -0.03618139028549194,
            0.013192614540457726,
            -0.07306689023971558,
            0.17143414914608002,
            0.18326377868652344,
            0.19591957330703735,
            -0.21173836290836334,
            -0.11862581223249435,
            0.14544405043125153,
            -0.37218937277793884
          ],
          [
            -0.08120331913232803,
            -0.20950692892074585,
            -0.03080613724887371,
            -0.02026129513978958,
            -0.17316597700119019,
            -0.0817890465259552,
            0.21680353581905365,
            -0.005419180262833834,
            0.013802748173475266,
            -0.13988319039344788,
            -0.3286110758781433,
            -0.09993043541908264,
            -0.2630084156990051,
            -0.04477092623710632,
            0.02057681232690811,
            -0.02829894982278347,
            -0.2141578197479248,
            -0.0678301453590393,
            -0.07397779822349548,
            0.04878293722867966,
            -0.10115043073892593,
            0.1455518901348114,
            -0.11654537171125412,
            0.1343107521533966,
            0.2508891224861145,
            0.18673518300056458,
            -0.2171154022216797,
            -0.08234058320522308,
            0.018937870860099792,
            0.2698402404785156,
            -0.14051522314548492,
            0.027035821229219437,
            -0.2567724287509918,
            -0.2835008502006531,
            -0.060822952538728714,
            -0.09875055402517319,
            0.11528412252664566,
            0.36206865310668945,
            0.1479838639497757,
            -0.03619402274489403,
            -0.1073731780052185,
            -0.18130891025066376,
            -0.2174575924873352,
            -0.2854033410549164,
            -0.009640343487262726,
            -0.1817537546157837,
            -0.1916210651397705,
            0.2567090392112732,
            0.009877968579530716,
            0.15652330219745636,
            -0.2075718343257904,
            -0.21129311621189117,
            0.04704754427075386,
            -0.41873660683631897,
            -0.027113627642393112,
            -0.30781999230384827,
            0.002749449573457241,
            -0.000405350438086316,
            -0.1008208692073822,
            0.26358357071876526,
            -0.222727969288826,
            -0.046553805470466614,
            -0.02073829248547554,
            -0.22325176000595093
          ],
          [
            -0.05816449224948883,
            0.054164987057447433,
            0.05337892100214958,
            -0.13066257536411285,
            -0.07716035097837448,
            -0.018441861495375633,
            0.16335172951221466,
            -0.516727089881897,
            0.14336878061294556,
            -0.05702078342437744,
            -0.07369685918092728,
            -0.22182269394397736,
            -0.278577983379364,
            0.18990308046340942,
            0.04619105905294418,
            0.007670608349144459,
            -0.1384125053882599,
            0.049372270703315735,
            -0.002642803592607379,
            0.15606853365898132,
            -0.11404503881931305,
            0.12632092833518982,
            0.15052443742752075,
            0.0807882770895958,
            0.005741636268794537,
            0.2757737338542938,
            -0.046166129410266876,
            0.06615103781223297,
            0.25609856843948364,
            0.1760493665933609,
            -0.15440455079078674,
            0.0840744823217392,
            -0.08045327663421631,
            -0.10970234870910645,
            0.032896220684051514,
            -0.0976899042725563,
            0.44203880429267883,
            0.24242715537548065,
            0.3439623713493347,
            -0.2007826417684555,
            0.23108087480068207,
            -0.09195592999458313,
            0.3267543315887451,
            0.048166483640670776,
            -0.2167806625366211,
            -0.07367224246263504,
            -0.11117371916770935,
            -0.19071762263774872,
            -0.07895539700984955,
            0.08575962483882904,
            -0.47858211398124695,
            -0.1720423400402069,
            -0.1319325864315033,
            -0.3469371795654297,
            0.02089371345937252,
            -0.0037237524520605803,
            0.15066297352313995,
            0.26208144426345825,
            0.017261499539017677,
            -0.21543607115745544,
            -0.18881474435329437,
            0.023044636473059654,
            0.29618775844573975,
            0.14152801036834717
          ]
        ],
        "biases": [
          -0.2647360563278198,
          -0.1058683693408966,
          -0.32481685280799866,
          -0.3198298215866089,
          -0.3365083336830139,
          -0.32295742630958557,
          0.03105253167450428,
          -0.317088782787323,
          -0.17928214371204376,
          -0.22205716371536255,
          -0.31125178933143616,
          -0.4094863533973694,
          -0.39141517877578735,
          -0.07309997081756592,
          -0.184284970164299,
          -0.20445087552070618,
          -0.34134718775749207,
          -0.15623989701271057,
          -0.17911304533481598,
          -0.18320563435554504,
          -0.46568384766578674,
          -0.042275235056877136,
          -0.18786820769309998,
          -0.05111363157629967,
          0.09242755174636841,
          -0.04166238382458687,
          -0.23001889884471893,
          -0.10793271660804749,
          -0.054272521287202835,
          -0.12236389517784119,
          -0.17655551433563232,
          -0.09130097180604935,
          -0.2531033754348755,
          -0.13144813477993011,
          -0.10821723192930222,
          -0.12912671267986298,
          0.04099392518401146,
          -0.007541236001998186,
          0.11737224459648132,
          -0.15285953879356384,
          0.023331888020038605,
          -0.1164548322558403,
          -0.1952539086341858,
          -0.17750295996665955,
          -0.11689458787441254,
          -0.27065175771713257,
          -0.39083823561668396,
          -0.21195855736732483,
          -0.2500610947608948,
          0.08798141777515411,
          -0.1920451521873474,
          -0.22517891228199005,
          -0.1497296839952469,
          -0.3728969097137451,
          -0.17961500585079193,
          -0.2546992301940918,
          -0.022350845858454704,
          0.03964925557374954,
          -0.1705232411623001,
          -0.01202429085969925,
          -0.27006474137306213,
          -0.31736311316490173,
          0.007647066377103329,
          -0.2201177030801773
        ]
      },
      {
        "weights": [
          [
            -0.1051688939332962,
            -0.00876251608133316,
            0.3628072738647461,
            -0.07811587303876877,
            0.13677458465099335,
            0.46411746740341187,
            -0.11994343250989914,
            -0.11157222837209702,
            -0.4577508270740509,
            0.29974842071533203,
            0.04452865943312645,
            0.3036218285560608,
            0.10415409505367279,
            0.28479090332984924,
            -0.05350441858172417,
            0.02268083021044731,
            -0.10781574994325638,
            0.16143611073493958,
            0.01330037321895361,
            0.0700053870677948,
            0.12049467861652374,
            0.6569029092788696,
            -0.026681149378418922,
            0.05826957896351814,
            -0.11310437321662903,
            0.3289335370063782,
            0.01929585449397564,
            -0.04939383640885353,
            0.021727047860622406,
            -0.024965109303593636,
            0.056971143931150436,
            0.051779113709926605
          ],
          [
            -0.4697180390357971,
            -0.1538725197315216,
            0.255998820066452,
            0.181680828332901,
            0.24400515854358673,
            0.22880510985851288,
            -0.06701919436454773,
            0.11198955774307251,
            -0.23768018186092377,
            0.3320518732070923,
            -0.3212061822414398,
            -0.10239672660827637,
            -0.32143986225128174,
            -0.028060536831617355,
            -0.05630254000425339,
            0.1858963668346405,
            0.14002393186092377,
            0.0554438941180706,
            -0.3525643050670624,
            0.049650028347969055,
            -0.7145968675613403,
            0.22715239226818085,
            0.035064756870269775,
            -0.020894411951303482,
            0.14538618922233582,
            -0.15584249794483185,
            -0.01899532601237297,
            -0.37143319845199585,
            0.3224201500415802,
            0.0053177871741354465,
            -0.03352171927690506,
            -0.023563338443636894
          ],
          [
            -0.6764563918113708,
            -0.6852980852127075,
            -0.1261388510465622,
            0.16787931323051453,
            0.24812287092208862,
            0.024046270176768303,
            0.09065598994493484,
            -0.11793910712003708,
            -0.3370016813278198,
            -0.18035511672496796,
            -0.869618833065033,
            0.14309929311275482,
            -0.6665153503417969,
            0.13730090856552124,
            0.18587423861026764,
            0.1508859097957611,
            -0.12235027551651001,
            0.1419282853603363,
            0.07297386974096298,
            -0.06713319569826126,
            0.1366671621799469,
            0.02579548954963684,
            -0.32393258810043335,
            -0.17512096464633942,
            0.06397685408592224,
            0.12120133638381958,
            -0.4429294168949127,
            -0.5336817502975464,
            0.11138235032558441,
            0.05088571831583977,
            0.0276894960552454,
            -0.9013469815254211
          ],
          [
            0.012624862603843212,
            0.055706270039081573,
            0.3059966564178467,
            -0.03912080451846123,
            0.21071548759937286,
            -0.5984113812446594,
            0.25732892751693726,
            -0.2090756893157959,
            0.15849316120147705,
            -0.43560823798179626,
            -0.10062085092067719,
            0.07174652069807053,
            -0.08474718034267426,
            0.20467299222946167,
            0.06655718386173248,
            0.3925321698188782,
            -0.1810920685529709,
            0.03777998685836792,
            -0.054873134940862656,
            0.44268903136253357,
            0.0468573234975338,
            0.2966000437736511,
            -0.1064397469162941,
            0.13399675488471985,
            -0.32957354187965393,
            0.10576105117797852,
            -0.1219591274857521,
            0.12622027099132538,
            -0.182796910405159,
            -0.06940555572509766,
            0.3615303933620453,
            -0.013754680752754211
          ],
          [
            -0.4905194938182831,
            -0.6403259038925171,
            0.06584794074296951,
            0.36487555503845215,
            0.18957388401031494,
            0.14738750457763672,
            0.1303497701883316,
            0.14793618023395538,
            -0.3058207929134369,
            -0.037657927721738815,
            -0.33491459488868713,
            0.11025667935609818,
            -0.6871635913848877,
            0.21589942276477814,
            0.0873694196343422,
            -0.023066753521561623,
            -0.15277020633220673,
            0.08981068432331085,
            0.10717492550611496,
            0.1603211611509323,
            0.11421054601669312,
            0.01675582304596901,
            -0.21759562194347382,
            -0.03422602638602257,
            -0.04969183728098869,
            -0.00034214009065181017,
            -0.44009968638420105,
            -0.4178909957408905,
            -0.14128191769123077,
            0.12990060448646545,
            -0.055996283888816833,
            -0.399525910615921
          ],
          [
            -0.8674353957176208,
            -0.9562824368476868,
            0.15348173677921295,
            0.09696625173091888,
            -0.003313755849376321,
            0.1683480441570282,
            0.0282767154276371,
            0.10893435031175613,
            -0.06753209978342056,
            0.01725083589553833,
            -0.9212910532951355,
            0.2266494333744049,
            -1.0272048711776733,
            0.1655224710702896,
            -0.01558268815279007,
            0.0738210529088974,
            -0.19118177890777588,
            0.027899054810404778,
            0.1254245787858963,
            0.1394464373588562,
            0.08114129304885864,
            -0.10102687031030655,
            -0.5096309781074524,
            0.11068551987409592,
            0.29777783155441284,
            0.20802852511405945,
            -0.6291825771331787,
            -0.8441675305366516,
            0.43934395909309387,
            0.16146425902843475,
            0.030870528891682625,
            -0.8573614358901978
          ],
          [
            0.02634289488196373,
            0.007438874803483486,
            0.00577850267291069,
            -0.182183176279068,
            0.01189761608839035,
            -0.03918290510773659,
            -0.631948709487915,
            0.0626680850982666,
            0.09553708881139755,
            -0.050657086074352264,
            0.16679587960243225,
            0.047071654349565506,
            -0.042810361832380295,
            -0.14602501690387726,
            -0.08878520131111145,
            0.17277498543262482,
            0.21049413084983826,
            -0.12321417033672333,
            0.08599374443292618,
            -0.7287373542785645,
            0.06476651132106781,
            -0.21264159679412842,
            0.29392009973526,
            -0.4660814106464386,
            -0.12461385875940323,
            -0.03587459772825241,
            0.20022127032279968,
            0.12543752789497375,
            -0.045731257647275925,
            0.30895790457725525,
            -0.4677034914493561,
            0.11741156131029129
          ],
          [
            -0.1517026126384735,
            0.31980735063552856,
            0.12298057973384857,
            0.1014987900853157,
            -0.010438590310513973,
            0.015029875561594963,
            -0.021439453586935997,
            0.0018358572851866484,
            0.21226660907268524,
            -0.31773191690444946,
            0.18409208953380585,
            0.36076077818870544,
            -0.06921079754829407,
            -0.03095060959458351,
            0.18615391850471497,
            0.1940802037715912,
            0.015477702021598816,
            0.2801111340522766,
            -0.14929324388504028,
            -0.23384617269039154,
            -0.22038103640079498,
            0.07450008392333984,
            0.28077057003974915,
            -0.21994701027870178,
            -0.3625110983848572,
            0.247728168964386,
            0.21980322897434235,
            -0.18125051259994507,
            -0.09502868354320526,
            -0.2798406779766083,
            -0.06617583334445953,
            -0.2364102303981781
          ],
          [
            -0.4793455898761749,
            -0.28062012791633606,
            -0.005728399846702814,
            -0.29876965284347534,
            0.07141821831464767,
            -0.08263026922941208,
            -0.01055439654737711,
            -0.023044325411319733,
            -0.22711461782455444,
            0.03936910629272461,
            -0.17633356153964996,
            0.05074731260538101,
            -0.3082706928253174,
            -0.2641434371471405,
            -0.0560138002038002,
            -0.15239842236042023,
            -0.017489532008767128,
            -0.01898743212223053,
            -0.07422199100255966,
            -0.022110871970653534,
            -0.057138822972774506,
            -0.15225742757320404,
            0.005035762209445238,
            -0.09993636608123779,
            0.16877222061157227,
            0.056038398295640945,
            -0.03823285549879074,
            -0.40288570523262024,
            -0.09758289903402328,
            -0.11183252930641174,
            0.1974717229604721,
            -0.11305687576532364
          ],
          [
            0.11300785094499588,
            -0.06689713150262833,
            -0.2426116019487381,
            -0.3280940651893616,
            -0.07184533774852753,
            0.0057724593207240105,
            -0.44035232067108154,
            0.017476756125688553,
            0.1822986751794815,
            0.14099682867527008,
            -0.151499405503273,
            -0.25873827934265137,
            0.10026892274618149,
            -0.28611433506011963,
            -0.07755830138921738,
            -0.2574537992477417,
            0.11911766976118088,
            -0.2722850441932678,
            0.5674810409545898,
            -0.6726032495498657,
            -0.33971837162971497,
            -0.1529860943555832,
            0.09220732748508453,
            -0.34706911444664,
            0.07425945997238159,
            -0.20148396492004395,
            0.02960810996592045,
            0.05960976332426071,
            0.10819970816373825,
            0.3148678243160248,
            -0.39112234115600586,
            -0.06541614979505539
          ],
          [
            0.13880832493305206,
            0.2788316309452057,
            -0.36799323558807373,
            -0.4887619912624359,
            0.14551950991153717,
            0.106496661901474,
            -0.42667102813720703,
            -0.12518079578876495,
            0.01667286828160286,
            0.10965080559253693,
            0.08932263404130936,
            -1.0122599601745605,
            0.08028663694858551,
            -0.1806086301803589,
            -0.35167497396469116,
            -0.33586204051971436,
            -0.03320768475532532,
            -0.7568522095680237,
            -0.07559610903263092,
            -0.01658826880156994,
            -0.6977671980857849,
            -0.20784702897071838,
            0.27462682127952576,
            -0.03496800363063812,
            0.03572018817067146,
            -1.124211311340332,
            0.13452352583408356,
            -0.048614006489515305,
            -0.04431717097759247,
            0.24061404168605804,
            -0.49481508135795593,
            -0.1885565221309662
          ],
          [
            -0.3974786698818207,
            -0.5814545750617981,
            0.22080066800117493,
            0.1421089917421341,
            -0.1339714229106903,
            -0.0016448182286694646,
            0.041082024574279785,
            -0.11251579970121384,
            0.12957341969013214,
            0.043997958302497864,
            -0.5026759505271912,
            0.09284135699272156,
            -0.5376108288764954,
            0.18548785150051117,
            0.007380930706858635,
            -0.01975947991013527,
            -0.11461766064167023,
            0.06770467013120651,
            0.0606076754629612,
            0.10679782927036285,
            0.16781224310398102,
            -0.02509075589478016,
            -0.32418957352638245,
            0.268239825963974,
            0.13470295071601868,
            0.122831791639328,
            -0.5053718686103821,
            -0.32497745752334595,
            -0.19164413213729858,
            0.10824257880449295,
            -0.05965188518166542,
            -0.5920972228050232
          ],
          [
            -0.444419264793396,
            -0.555761992931366,
            0.022426115348935127,
            0.2888904809951782,
            0.017898526042699814,
            -0.0017611574148759246,
            -0.11446084827184677,
            0.0444345586001873,
            -0.31210771203041077,
            0.20833778381347656,
            -0.6461790204048157,
            -0.008995777927339077,
            -0.6643067598342896,
            -0.04553006589412689,
            0.18528133630752563,
            0.13181331753730774,
            -0.276694655418396,
            0.13181285560131073,
            0.14533816277980804,
            0.002970476634800434,
            0.11711210012435913,
            0.11940460652112961,
            -0.4526529014110565,
            0.13627088069915771,
            -0.03525032848119736,
            -0.023879660293459892,
            -0.6253544688224792,
            -0.6018677949905396,
            0.2837907373905182,
            0.10008455812931061,
            0.18535111844539642,
            -0.7509061098098755
          ],
          [
            0.05667486414313316,
            -0.023189377039670944,
            0.21470744907855988,
            -0.33080753684043884,
            0.04910566657781601,
            0.04216355085372925,
            -0.587502658367157,
            -0.025423770770430565,
            -0.4003799855709076,
            0.05370945855975151,
            0.12657815217971802,
            0.06008589267730713,
            0.11093465983867645,
            -0.3943818211555481,
            -0.28269249200820923,
            0.13499388098716736,
            0.5669623017311096,
            -0.08057770133018494,
            0.09820102900266647,
            -0.668687641620636,
            0.1557798832654953,
            0.2511950731277466,
            0.42967337369918823,
            -0.4762518107891083,
            -0.15721295773983002,
            -0.10802514106035233,
            0.6747300624847412,
            0.18322493135929108,
            -0.02457989938557148,
            0.03509309142827988,
            -0.7769938707351685,
            0.30671125650405884
          ],
          [
            0.0005478434031829238,
            0.012885196134448051,
            -0.121782086789608,
            -0.4353727400302887,
            -0.022747449576854706,
            -0.1037309393286705,
            -0.36124148964881897,
            -0.6745758652687073,
            -0.2121693193912506,
            -0.021220343187451363,
            -0.08193116635084152,
            -0.7226518988609314,
            -0.03560728579759598,
            -0.044446464627981186,
            -0.3252033293247223,
            -0.09589351713657379,
            0.20536908507347107,
            -0.6295817494392395,
            0.23614126443862915,
            -0.07710812240839005,
            -0.11314631998538971,
            0.04131529480218887,
            0.019970357418060303,
            0.12118705362081528,
            0.25851497054100037,
            -0.3153555393218994,
            0.025003157556056976,
            0.049237754195928574,
            -0.0729459747672081,
            -0.007936316542327404,
            -0.45867466926574707,
            0.08036237955093384
          ],
          [
            -0.5965456962585449,
            -0.1054656133055687,
            0.08362879604101181,
            -0.10449539870023727,
            0.10091845691204071,
            0.22390243411064148,
            0.0014140360290184617,
            0.44714629650115967,
            -0.20936356484889984,
            0.18596282601356506,
            -0.6429497003555298,
            0.01221887394785881,
            -0.5758371353149414,
            0.01490519754588604,
            -0.10667034238576889,
            0.5036107897758484,
            -0.07023608684539795,
            0.2353844940662384,
            -0.3828488886356354,
            0.011065053753554821,
            -0.7420962452888489,
            0.1749427318572998,
            0.014654374681413174,
            0.02817165106534958,
            0.03303409740328789,
            -0.15207704901695251,
            0.01353409979492426,
            -0.7279001474380493,
            0.1518828272819519,
            -0.05403798073530197,
            0.002856444101780653,
            0.022093376144766808
          ],
          [
            -0.10412919521331787,
            -0.10625065118074417,
            0.007455253507941961,
            -0.18032306432724,
            -0.7454078793525696,
            0.027915537357330322,
            -0.649878740310669,
            0.0008428928558714688,
            -0.1696772426366806,
            0.18931719660758972,
            -0.06626532226800919,
            -0.4441564381122589,
            -0.05958957225084305,
            -0.36914944648742676,
            -0.026217145845294,
            -0.7626581788063049,
            -0.05718327313661575,
            -0.7435911893844604,
            0.18030734360218048,
            -0.3059047758579254,
            -0.5359563231468201,
            0.1022481918334961,
            0.21447595953941345,
            -0.2207682579755783,
            -0.17890620231628418,
            -0.08939490467309952,
            0.12889264523983002,
            -0.06009344011545181,
            -0.06409568339586258,
            0.2369503527879715,
            -0.5277049541473389,
            0.20918011665344238
          ],
          [
            0.033923856914043427,
            -0.20520268380641937,
            -0.10233767330646515,
            -0.004988186992704868,
            -0.019302954897284508,
            0.1112530529499054,
            -0.290490984916687,
            0.014841093681752682,
            -0.04550739750266075,
            0.09122595191001892,
            0.030146116390824318,
            0.02225673384964466,
            0.11932741850614548,
            -0.14105334877967834,
            -0.22453749179840088,
            -0.6012901067733765,
            0.24767343699932098,
            -0.1970357894897461,
            0.044501129537820816,
            -0.35128283500671387,
            -0.3845394253730774,
            -0.0759957805275917,
            0.1901765912771225,
            -0.15776345133781433,
            -0.18836058676242828,
            -0.2069779932498932,
            0.2369920164346695,
            0.07683057337999344,
            0.18222618103027344,
            0.30826741456985474,
            -0.4714575707912445,
            0.03257123753428459
          ],
          [
            0.001735645579174161,
            -0.09492048621177673,
            0.14891394972801208,
            -0.2877594530582428,
            -0.384706050157547,
            0.09045405685901642,
            -0.4097805321216583,
            -0.14324672520160675,
            0.0665414109826088,
            0.11055535823106766,
            0.1369359940290451,
            -0.48660045862197876,
            0.07708283513784409,
            -0.2341955453157425,
            -0.42974522709846497,
            -0.691641092300415,
            0.20574882626533508,
            -0.6612175703048706,
            0.33865898847579956,
            -0.4444526135921478,
            -0.29615530371665955,
            -0.018182793632149696,
            0.09336602687835693,
            -0.4340907335281372,
            -0.24186104536056519,
            -0.1629238724708557,
            0.0347035713493824,
            0.26411500573158264,
            -0.13066551089286804,
            0.19477511942386627,
            -0.4559045433998108,
            -0.054977379739284515
          ],
          [
            -0.02334192954003811,
            -0.07219456881284714,
            0.07684121280908585,
            0.06650730967521667,
            0.02770640328526497,
            -0.17739002406597137,
            -0.26444900035858154,
            -0.24224866926670074,
            0.20624755322933197,
            -0.17511026561260223,
            0.03109833225607872,
            -0.07310152798891068,
            0.014491800218820572,
            -0.4461156129837036,
            -0.5208900570869446,
            0.018805168569087982,
            0.3557438850402832,
            -0.021087300032377243,
            -0.04646855220198631,
            -0.35608288645744324,
            -0.05130550265312195,
            -0.20788508653640747,
            0.601963222026825,
            -0.5399479866027832,
            -0.1856878101825714,
            -0.017967309802770615,
            0.4878619909286499,
            0.06341203302145004,
            0.020189547911286354,
            0.23264572024345398,
            -0.27094897627830505,
            0.08652389794588089
          ],
          [
            -0.09944774210453033,
            0.2457217425107956,
            0.7571264505386353,
            0.39524877071380615,
            0.5232303738594055,
            0.2557154595851898,
            0.627619743347168,
            -0.37839341163635254,
            -0.1559910625219345,
            0.4415917694568634,
            -0.02382085844874382,
            0.2012554258108139,
            -0.15823914110660553,
            0.38764992356300354,
            0.8604121208190918,
            0.33051979541778564,
            -0.6276524662971497,
            0.4323331117630005,
            -0.7199090719223022,
            0.18458127975463867,
            0.014783755876123905,
            0.5552285313606262,
            -0.590478777885437,
            0.6315758228302002,
            0.6253259778022766,
            0.26156488060951233,
            -0.5761988759040833,
            -0.24600544571876526,
            -0.49582168459892273,
            -0.8538212776184082,
            0.15997397899627686,
            -0.4491167664527893
          ],
          [
            0.10391408205032349,
            0.07021540403366089,
            0.012514177709817886,
            -0.4372837245464325,
            0.02698187157511711,
            -0.06559954583644867,
            -0.8830926418304443,
            0.011234873905777931,
            -0.07029780745506287,
            -0.06529442965984344,
            0.15602467954158783,
            0.03868008032441139,
            0.19149331748485565,
            -0.4970056116580963,
            -0.2504478394985199,
            0.1775006353855133,
            0.5578710436820984,
            -0.09120170027017593,
            0.19158026576042175,
            -0.6673170924186707,
            0.2140737771987915,
            0.12060634791851044,
            0.4941939115524292,
            -0.46122488379478455,
            -0.389106422662735,
            0.086526058614254,
            0.09708433598279953,
            -0.049205321818590164,
            -0.0001469419657951221,
            0.5089678764343262,
            -0.5405149459838867,
            0.13342170417308807
          ],
          [
            -0.25066259503364563,
            -0.4417964816093445,
            0.09661554545164108,
            -0.3564605712890625,
            0.10312658548355103,
            0.2539187967777252,
            0.15494194626808167,
            0.14874249696731567,
            -0.17368480563163757,
            0.2857183814048767,
            -0.41875603795051575,
            0.04441910609602928,
            -0.4669320583343506,
            0.13721159100532532,
            0.17723381519317627,
            0.18099357187747955,
            0.046769388020038605,
            0.1124580129981041,
            -0.0768902450799942,
            0.23815587162971497,
            -0.5933223366737366,
            0.22504203021526337,
            -0.0705435574054718,
            0.04843888804316521,
            -0.016499383375048637,
            0.05688044801354408,
            0.07104194164276123,
            -0.2326471507549286,
            0.1400899887084961,
            -0.0872378721833229,
            -0.042602427303791046,
            0.08180634677410126
          ],
          [
            0.008482183329761028,
            0.23446904122829437,
            0.11302296817302704,
            0.02746565267443657,
            0.08672856539487839,
            -0.10991843789815903,
            0.053878143429756165,
            -0.5628181099891663,
            0.13011468946933746,
            0.004386993125081062,
            -0.02182982861995697,
            -0.07451850175857544,
            0.015649612993001938,
            -0.23941907286643982,
            -0.6143664717674255,
            0.10407905280590057,
            0.21261677145957947,
            -0.03791181370615959,
            0.1360829770565033,
            -0.3614336848258972,
            0.019075239077210426,
            0.03043215721845627,
            0.34474021196365356,
            -0.13786984980106354,
            0.05978536978363991,
            -0.08258006721735,
            0.22137470543384552,
            -0.0261573176831007,
            -0.011334707029163837,
            0.2020532488822937,
            -0.028057720512151718,
            0.09739399701356888
          ],
          [
            0.06499611586332321,
            0.1348992884159088,
            -0.03295677527785301,
            -0.18995554745197296,
            0.1299041211605072,
            -0.013339531607925892,
            -0.3316654562950134,
            -0.094342902302742,
            -0.18896575272083282,
            0.0118942279368639,
            -0.062310852110385895,
            -0.03477627784013748,
            0.1093597561120987,
            -0.5660977363586426,
            -0.17326849699020386,
            -0.014119322411715984,
            0.22083532810211182,
            -0.057509470731019974,
            -0.01973479986190796,
            -0.46155962347984314,
            0.05610065162181854,
            0.10411972552537918,
            0.5281011462211609,
            -0.3481563627719879,
            -0.008302801288664341,
            -0.006094127427786589,
            0.36801525950431824,
            -0.004668517503887415,
            -0.3295721709728241,
            0.1454561948776245,
            -0.5206319093704224,
            0.24068650603294373
          ],
          [
            0.10343318432569504,
            -0.12410110235214233,
            -0.06473775953054428,
            -0.40889453887939453,
            -0.36220571398735046,
            -0.06535955518484116,
            -0.33600831031799316,
            -0.28370070457458496,
            0.005529602523893118,
            0.06020759418606758,
            0.16132870316505432,
            -0.24557311832904816,
            0.11789372563362122,
            -0.12057119607925415,
            -0.06965567171573639,
            -0.008352139964699745,
            0.25769948959350586,
            -0.20077940821647644,
            0.2110058069229126,
            -0.568596363067627,
            -0.03166111931204796,
            -0.04031490534543991,
            0.24366310238838196,
            -0.34877532720565796,
            -0.5299504399299622,
            0.0324690155684948,
            0.20045122504234314,
            0.003439601743593812,
            -0.2677163779735565,
            0.279976487159729,
            -0.21487203240394592,
            -0.043075162917375565
          ],
          [
            0.1971188634634018,
            0.09064383059740067,
            -0.4050159454345703,
            -0.46944311261177063,
            -0.12803804874420166,
            -0.20496626198291779,
            -0.3559664785861969,
            -0.5656813383102417,
            0.03583760932087898,
            -0.015287984162569046,
            0.12373939156532288,
            -0.6002336144447327,
            0.1593751162290573,
            -0.2959927022457123,
            -0.3841240108013153,
            -0.3127369284629822,
            0.11877281218767166,
            -0.8379856944084167,
            0.1483137309551239,
            -0.18525667488574982,
            -0.5336464047431946,
            -0.2500755786895752,
            0.5877692699432373,
            -0.15418067574501038,
            -0.0889960452914238,
            -0.5288187861442566,
            0.13874420523643494,
            -0.03638113662600517,
            -0.14480729401111603,
            0.41933563351631165,
            -0.497273713350296,
            0.34246471524238586
          ],
          [
            -0.3178984522819519,
            -0.18562638759613037,
            -0.16888022422790527,
            0.017134688794612885,
            0.24898524582386017,
            0.3285508155822754,
            0.016399569809436798,
            0.22488313913345337,
            -0.28419992327690125,
            0.24056357145309448,
            -0.09466233849525452,
            -0.1050303503870964,
            -0.3985236585140228,
            0.10708747059106827,
            -0.02119755744934082,
            0.06024846434593201,
            -0.01470851618796587,
            -0.03639383241534233,
            -0.2982846200466156,
            -0.02023146115243435,
            -0.9453635215759277,
            -0.01352671068161726,
            0.024722939357161522,
            0.17086072266101837,
            0.04656548053026199,
            0.06127180531620979,
            -0.047141533344984055,
            -0.19856123626232147,
            0.30910536646842957,
            -0.12086781114339828,
            0.002331217285245657,
            -0.019536705687642097
          ],
          [
            -0.010985486209392548,
            0.26731377840042114,
            -0.11466461420059204,
            -0.37691497802734375,
            0.014396406710147858,
            -0.03321927785873413,
            -0.3790316581726074,
            0.05026089772582054,
            0.02668573334813118,
            -0.059889018535614014,
            0.07745428383350372,
            -0.03166688606142998,
            0.024958999827504158,
            -0.2965646982192993,
            -0.15086548030376434,
            0.15103751420974731,
            0.3737570643424988,
            -0.022959677502512932,
            0.36544182896614075,
            -0.692915141582489,
            0.08187326788902283,
            -0.0011707760859280825,
            0.15596136450767517,
            -0.6459466814994812,
            0.02421800047159195,
            0.008616235107183456,
            0.08541054278612137,
            0.0519942007958889,
            -0.06038636714220047,
            0.17559391260147095,
            -0.3934122622013092,
            0.0020331155974417925
          ],
          [
            -0.03488488122820854,
            0.20528261363506317,
            -0.14034238457679749,
            0.06055111065506935,
            0.028372086584568024,
            -0.06827032566070557,
            -0.3074345588684082,
            0.0514984130859375,
            -0.02964676357805729,
            -0.19153808057308197,
            0.19228990375995636,
            0.09969791769981384,
            -0.06074953451752663,
            -0.32889270782470703,
            -0.3752952218055725,
            -0.14098785817623138,
            -0.0887245461344719,
            -0.08217845857143402,
            0.26586639881134033,
            -0.5881419777870178,
            -0.04522121697664261,
            -0.16504640877246857,
            0.12872828543186188,
            -0.46660515666007996,
            -0.30931371450424194,
            0.021605392917990685,
            -0.05438266694545746,
            0.005560397636145353,
            0.03191402927041054,
            0.19967150688171387,
            -0.38504213094711304,
            0.05815655738115311
          ],
          [
            0.1228640079498291,
            0.37739628553390503,
            -0.4114059507846832,
            -0.4195154011249542,
            -0.125547856092453,
            0.13200561702251434,
            -0.3953821063041687,
            -0.26210731267929077,
            0.011851665563881397,
            0.33158740401268005,
            0.05298297479748726,
            -0.6968818306922913,
            0.1702430099248886,
            -0.18057185411453247,
            -0.20727474987506866,
            -0.3032706379890442,
            -0.10561326146125793,
            -0.6972970962524414,
            0.18306444585323334,
            0.08093271404504776,
            -0.2627622187137604,
            0.005786159075796604,
            -0.038639746606349945,
            0.03448720648884773,
            0.10120563954114914,
            -0.9576781988143921,
            0.004486848134547472,
            0.13408425450325012,
            -0.013100695796310902,
            -0.05520237982273102,
            -0.4217057228088379,
            -0.0009841114515438676
          ],
          [
            0.0898798331618309,
            -0.00029114834615029395,
            -0.057861097157001495,
            -0.1368708312511444,
            -0.01765584386885166,
            -0.0551779568195343,
            -0.6586978435516357,
            0.02787140943109989,
            0.18400786817073822,
            0.001058057532645762,
            0.033849429339170456,
            -0.10745402425527573,
            0.014244554564356804,
            -0.372313529253006,
            -0.10554619878530502,
            0.05325055494904518,
            0.19345541298389435,
            -0.003987997304648161,
            0.1979542225599289,
            -0.5958919525146484,
            0.1635153740644455,
            -0.012640179134905338,
            0.2579861879348755,
            -0.2896622121334076,
            -0.10717134177684784,
            0.03234661743044853,
            0.29115182161331177,
            0.040435053408145905,
            0.03880423307418823,
            -0.04300720989704132,
            -0.923699140548706,
            0.12721091508865356
          ],
          [
            -0.6137149930000305,
            -0.2500031292438507,
            0.12369971722364426,
            0.18569563329219818,
            0.10732630640268326,
            -0.07405925542116165,
            0.08902090042829514,
            0.07964146137237549,
            -0.178587406873703,
            -0.20704367756843567,
            -0.19384191930294037,
            0.17887704074382782,
            -0.11527363955974579,
            0.09511587023735046,
            -0.09742555022239685,
            0.036989450454711914,
            -0.09853158891201019,
            -0.00846031866967678,
            -0.16224375367164612,
            -0.010644226334989071,
            0.08242710679769516,
            0.1670379787683487,
            -0.09889325499534607,
            -0.1391260325908661,
            -0.13572169840335846,
            -0.16010597348213196,
            -0.19753745198249817,
            -0.3104409873485565,
            0.0032125271391123533,
            -0.05368524044752121,
            0.056604545563459396,
            -0.3116912841796875
          ],
          [
            -0.34661346673965454,
            -0.2629842460155487,
            0.8900367617607117,
            -0.15859779715538025,
            0.15756471455097198,
            0.7739914655685425,
            0.19069719314575195,
            0.45624980330467224,
            -0.12201746553182602,
            0.4923379421234131,
            -0.45068326592445374,
            0.42381104826927185,
            -0.30305755138397217,
            -0.2614249587059021,
            0.36301156878471375,
            0.11814527213573456,
            -0.08288957178592682,
            -0.004193456843495369,
            0.08280930668115616,
            -0.03087388165295124,
            0.17223645746707916,
            0.5227225422859192,
            -0.008906655944883823,
            0.12450016289949417,
            0.013737794943153858,
            0.2740911543369293,
            -0.05147574841976166,
            -0.2572629749774933,
            0.6853577494621277,
            0.03011857159435749,
            -0.005130944307893515,
            -0.005097037646919489
          ],
          [
            -0.6101950407028198,
            -0.16567635536193848,
            -0.2287278175354004,
            0.046030912548303604,
            -0.0017797492910176516,
            0.18701454997062683,
            -0.02566703036427498,
            0.2580222189426422,
            -0.539558470249176,
            -0.1706535816192627,
            0.024507397785782814,
            0.12574033439159393,
            -0.36615681648254395,
            0.011893251910805702,
            0.067732073366642,
            -0.02048102393746376,
            -0.01132445689290762,
            -0.010304358787834644,
            -0.13548681139945984,
            0.04995163157582283,
            -0.8552975654602051,
            -0.013050836510956287,
            -0.009305519051849842,
            -0.07665558159351349,
            -0.1595112681388855,
            -0.029660282656550407,
            -0.010717155411839485,
            -0.6852366924285889,
            0.07959605753421783,
            -0.09309154003858566,
            -0.023669417947530746,
            -0.05831625685095787
          ],
          [
            -1.0035780668258667,
            -0.07839200645685196,
            0.047795891761779785,
            -0.04549116641283035,
            0.6347615122795105,
            -0.0538584403693676,
            0.0640883818268776,
            0.44184181094169617,
            0.013544204644858837,
            0.11688890308141708,
            -1.003391981124878,
            0.13675279915332794,
            -0.8988876342773438,
            -0.13088750839233398,
            -0.014202423393726349,
            0.016648730263113976,
            -0.01039838045835495,
            0.1199134886264801,
            -0.30937495827674866,
            0.0402863584458828,
            -0.8088067770004272,
            0.24519005417823792,
            -0.014085209928452969,
            0.03970455005764961,
            -0.06856745481491089,
            0.16133706271648407,
            0.010524915531277657,
            -1.0047420263290405,
            0.48466357588768005,
            -0.18151681125164032,
            0.013886124826967716,
            0.007098692003637552
          ],
          [
            0.07954657077789307,
            -0.042635783553123474,
            0.02444670908153057,
            -0.7078699469566345,
            0.0014071534387767315,
            0.007587024010717869,
            -0.8356064558029175,
            -0.2309572696685791,
            -0.03515421226620674,
            0.0023900021333247423,
            0.0538034625351429,
            0.05198042094707489,
            0.08196989446878433,
            -0.644671618938446,
            -0.5931546688079834,
            0.0026534576900303364,
            0.4064563512802124,
            -0.1379304826259613,
            0.37962448596954346,
            -0.5202670097351074,
            0.012822126969695091,
            0.06013376638293266,
            0.27885639667510986,
            -0.6764129400253296,
            -0.3723962903022766,
            0.015390882268548012,
            0.24069389700889587,
            0.08666133135557175,
            -0.36948391795158386,
            0.18019698560237885,
            -0.6475332975387573,
            0.12430679798126221
          ],
          [
            0.009877759031951427,
            0.15408319234848022,
            0.08974043279886246,
            0.14705169200897217,
            0.07464927434921265,
            -0.11666498333215714,
            -0.0952356681227684,
            -0.1440349668264389,
            0.21372568607330322,
            -0.19819875061511993,
            -0.049205340445041656,
            0.1558901071548462,
            -0.06727024167776108,
            -0.2933092713356018,
            -0.31608301401138306,
            0.028768137097358704,
            0.30616888403892517,
            0.03474106267094612,
            -0.08286455273628235,
            -0.11951765418052673,
            -0.049633897840976715,
            -0.09978464245796204,
            0.3174794614315033,
            -0.34504544734954834,
            -0.23630009591579437,
            -0.0346929207444191,
            0.22643348574638367,
            -0.004152235575020313,
            -0.1602710634469986,
            0.1589748114347458,
            -0.13382062315940857,
            0.0648905336856842
          ],
          [
            0.04985665902495384,
            0.10969182848930359,
            0.026030875742435455,
            -0.30699241161346436,
            -0.014188122004270554,
            -0.0790707916021347,
            -0.5941734313964844,
            -0.0787074863910675,
            0.14268429577350616,
            0.0021581649780273438,
            -0.06035269796848297,
            0.001273132162168622,
            0.11416559666395187,
            -0.2739488184452057,
            -0.07360827177762985,
            0.10329113155603409,
            0.3164609372615814,
            0.040518276393413544,
            -0.036791518330574036,
            -0.5159583687782288,
            0.05938506871461868,
            0.005752564407885075,
            0.43558305501937866,
            -0.5713934302330017,
            -0.3059920370578766,
            0.06270556896924973,
            0.10990647971630096,
            0.039663441479206085,
            -0.30347514152526855,
            0.21704429388046265,
            -0.711979866027832,
            -0.03285292536020279
          ],
          [
            -0.5387493371963501,
            0.09528201818466187,
            -0.004057424608618021,
            0.04742027819156647,
            0.43452662229537964,
            0.017800752073526382,
            -0.009604915045201778,
            0.37329038977622986,
            -0.2468683421611786,
            -0.05552373453974724,
            -0.5656436681747437,
            0.12272829562425613,
            -0.635735809803009,
            -0.002212461782619357,
            0.3500439524650574,
            -0.11415461450815201,
            -0.09303116053342819,
            -0.17658524215221405,
            -0.26915910840034485,
            0.021356375887989998,
            -0.35015782713890076,
            -0.033174410462379456,
            0.0007538072532042861,
            -0.09191130846738815,
            -0.08590470254421234,
            0.35371747612953186,
            0.003332951571792364,
            -0.3751646876335144,
            0.17882326245307922,
            -0.21387478709220886,
            0.06043079495429993,
            0.012014445848762989
          ],
          [
            0.047694575041532516,
            -0.16557000577449799,
            -0.17164796590805054,
            -0.44972920417785645,
            -0.018792150542140007,
            -0.17548838257789612,
            -0.5447127223014832,
            0.013717896305024624,
            -0.1881866157054901,
            -0.1700822114944458,
            0.13752537965774536,
            -0.004420602694153786,
            0.060518037527799606,
            0.0017985472222790122,
            -0.08303841948509216,
            0.25254666805267334,
            0.34080663323402405,
            0.03364240750670433,
            0.04899062216281891,
            -0.5593693256378174,
            0.05668175220489502,
            -0.07947210967540741,
            0.42333075404167175,
            -0.15561489760875702,
            -0.21291309595108032,
            0.00819648802280426,
            0.5413761138916016,
            0.013071581721305847,
            -0.18915270268917084,
            0.10239585489034653,
            -0.7154832482337952,
            0.2690829634666443
          ],
          [
            -0.48621833324432373,
            -0.014827240258455276,
            0.03386629372835159,
            0.1648106724023819,
            0.02950703166425228,
            0.19367849826812744,
            -0.026310373097658157,
            0.17439566552639008,
            -0.0475836880505085,
            0.06684857606887817,
            -0.13915619254112244,
            0.1720046103000641,
            -0.6640158295631409,
            0.18782652914524078,
            -0.21971526741981506,
            0.2090524137020111,
            -0.11741311103105545,
            -0.15475085377693176,
            -0.40116220712661743,
            0.03462815284729004,
            -0.263369619846344,
            0.3916340172290802,
            -0.026577821001410484,
            -0.04751891642808914,
            -0.20574794709682465,
            0.1268797367811203,
            -0.04355093091726303,
            -0.7652321457862854,
            0.11447145789861679,
            -0.34717103838920593,
            0.015473093837499619,
            -0.03490785136818886
          ],
          [
            -0.03872637450695038,
            0.17934244871139526,
            -0.20380304753780365,
            0.15499816834926605,
            -0.12699724733829498,
            -0.34471023082733154,
            0.14396259188652039,
            -0.5114969611167908,
            0.015349650755524635,
            -0.24164117872714996,
            0.10621907562017441,
            -0.07668387144804001,
            0.03267567232251167,
            -0.0704050064086914,
            0.30966416001319885,
            -0.062028318643569946,
            -0.11617670953273773,
            0.0464753657579422,
            0.2485482394695282,
            0.19237396121025085,
            -0.01779557578265667,
            -0.15625686943531036,
            -0.10179085284471512,
            0.2653521001338959,
            0.059879474341869354,
            0.06609739363193512,
            -0.11316486448049545,
            0.17142081260681152,
            0.0857948437333107,
            0.320521742105484,
            -0.19575095176696777,
            -0.04557204246520996
          ],
          [
            0.12426755577325821,
            0.09371879696846008,
            -0.11615706980228424,
            -0.3028315305709839,
            -0.04612987861037254,
            0.08657172322273254,
            -0.20488488674163818,
            0.09441548585891724,
            0.364511102437973,
            0.09694630652666092,
            -0.25341159105300903,
            -0.19196437299251556,
            0.24233438074588776,
            -0.35039693117141724,
            -0.15015773475170135,
            -0.2276514321565628,
            0.127867192029953,
            -0.2542511522769928,
            0.1765051931142807,
            -0.5019072890281677,
            -0.10090077668428421,
            -0.15513016283512115,
            0.09691577404737473,
            -0.3468824625015259,
            0.07332312315702438,
            -0.1963060051202774,
            0.06678742915391922,
            0.07538076490163803,
            0.04554275423288345,
            0.26123344898223877,
            -0.46161606907844543,
            0.19363775849342346
          ],
          [
            0.11205452680587769,
            0.2526576519012451,
            0.061712104827165604,
            -0.10296544432640076,
            -0.5718927979469299,
            0.04709489271044731,
            -0.2678282856941223,
            0.010942631401121616,
            0.14669138193130493,
            0.06927421689033508,
            0.18523311614990234,
            -0.07717219740152359,
            0.08504507690668106,
            -0.1958378106355667,
            -0.23962879180908203,
            -0.30025678873062134,
            0.07219821214675903,
            -0.30187150835990906,
            0.440829873085022,
            -0.2688824236392975,
            -0.3124324083328247,
            0.10941346734762192,
            0.023680850863456726,
            -0.30152443051338196,
            -0.16866804659366608,
            0.043438415974378586,
            -0.006321345921605825,
            0.10756359994411469,
            -0.14669111371040344,
            0.06312864273786545,
            0.1472751498222351,
            0.24543258547782898
          ],
          [
            -0.7186847925186157,
            -0.5815135836601257,
            0.18861965835094452,
            0.036510538309812546,
            -0.032736532390117645,
